{
    "in_shape": [
        null,
        null,
        1
    ],
    "layers": [
        {
            "type": "dense",
            "activation": "tanh",
            "shape": [
                null,
                null,
                8
            ],
            "weights": [
                [
                    [
                        -0.07088179886341095,
                        0.02696279250085354,
                        -0.04625750333070755,
                        0.09230856597423553,
                        0.045690540224313736,
                        0.003138764761388302,
                        -0.05985032021999359,
                        0.024051601067185402
                    ]
                ],
                [
                    0.12637096643447876,
                    0.02639193646609783,
                    -0.002224689582362771,
                    -0.060411237180233,
                    0.0070406245067715645,
                    -0.026381729170680046,
                    0.023600799962878227,
                    -0.041205938905477524
                ]
            ]
        },
        {
            "type": "conv1d",
            "activation": "tanh",
            "shape": [
                null,
                null,
                4
            ],
            "kernel_size": [
                3
            ],
            "dilation": [
                2
            ],
            "weights": [
                [
                    [
                        [
                            -0.2007630169391632,
                            0.37445974349975586,
                            -0.0064455135725438595,
                            -0.41421380639076233
                        ],
                        [
                            0.05196262151002884,
                            0.3717471957206726,
                            -0.04301685467362404,
                            0.17157354950904846
                        ],
                        [
                            -0.29756107926368713,
                            0.38849106431007385,
                            -0.15437455475330353,
                            0.39838388562202454
                        ],
                        [
                            -0.37257683277130127,
                            0.1773664355278015,
                            -0.061547618359327316,
                            -0.3313697576522827
                        ],
                        [
                            0.03875873610377312,
                            0.3199074864387512,
                            0.27271556854248047,
                            0.2953094244003296
                        ],
                        [
                            0.11567636579275131,
                            -0.345461368560791,
                            0.16320176422595978,
                            0.30383533239364624
                        ],
                        [
                            0.004898733459413052,
                            0.29628145694732666,
                            0.14140427112579346,
                            -0.22939413785934448
                        ],
                        [
                            0.13901576399803162,
                            -0.27459150552749634,
                            -0.033387813717126846,
                            0.26492252945899963
                        ]
                    ],
                    [
                        [
                            -0.21919108927249908,
                            0.24168366193771362,
                            -0.3295665383338928,
                            0.08565378189086914
                        ],
                        [
                            0.3122502863407135,
                            -0.37976959347724915,
                            -0.014565572142601013,
                            0.2173917442560196
                        ],
                        [
                            -0.04072721302509308,
                            0.27490657567977905,
                            -0.15099553763866425,
                            -0.31328943371772766
                        ],
                        [
                            -0.11831652373075485,
                            -0.26194995641708374,
                            -0.17507949471473694,
                            0.23694120347499847
                        ],
                        [
                            0.02783745899796486,
                            -0.040394000709056854,
                            -0.3406517505645752,
                            0.3753955662250519
                        ],
                        [
                            -0.09824614971876144,
                            0.03563615679740906,
                            0.036657389253377914,
                            0.21032258868217468
                        ],
                        [
                            0.24528451263904572,
                            -0.27711284160614014,
                            -0.34732797741889954,
                            -0.3368547260761261
                        ],
                        [
                            0.40835896134376526,
                            -0.01064884290099144,
                            0.00022066617384552956,
                            -0.28382158279418945
                        ]
                    ],
                    [
                        [
                            -0.019783373922109604,
                            0.29693150520324707,
                            -0.3085985481739044,
                            0.33860838413238525
                        ],
                        [
                            -0.03321787342429161,
                            0.21908904612064362,
                            -0.186057448387146,
                            0.1650760918855667
                        ],
                        [
                            -0.10663759708404541,
                            0.09359265863895416,
                            -0.16016602516174316,
                            -0.4110898971557617
                        ],
                        [
                            0.3151155710220337,
                            -0.24362719058990479,
                            -0.09945320338010788,
                            -0.155877947807312
                        ],
                        [
                            0.16730765998363495,
                            -0.25373879075050354,
                            -0.2345632016658783,
                            0.2532137334346771
                        ],
                        [
                            0.36347368359565735,
                            0.11731194704771042,
                            -0.26547688245773315,
                            -0.10751203447580338
                        ],
                        [
                            0.36619096994400024,
                            0.11678425222635269,
                            -0.12934620678424835,
                            0.283447802066803
                        ],
                        [
                            0.0026977360248565674,
                            0.16400732100009918,
                            -0.04712273180484772,
                            -0.07636561989784241
                        ]
                    ]
                ],
                [
                    0.005979117937386036,
                    0.05539223551750183,
                    0.11218734830617905,
                    -0.03536968305706978
                ]
            ]
        },
        {
            "type": "gru",
            "activation": "tanh",
            "shape": [
                null,
                null,
                8
            ],
            "weights": [
                [
                    [
                        0.24581943452358246,
                        0.4362044632434845,
                        0.14682967960834503,
                        0.1531907171010971,
                        0.08891727775335312,
                        -0.0069513097405433655,
                        0.1441168487071991,
                        0.1179673969745636,
                        -0.09163514524698257,
                        -0.2857464849948883,
                        0.12455196678638458,
                        0.3895432651042938,
                        -0.013057662174105644,
                        -0.35387367010116577,
                        -0.31804636120796204,
                        0.39083319902420044,
                        0.14868876338005066,
                        -0.22349293529987335,
                        -0.38848772644996643,
                        -0.36956846714019775,
                        0.016622455790638924,
                        0.37509897351264954,
                        0.425243079662323,
                        -0.3700818419456482
                    ],
                    [
                        -0.03891386464238167,
                        -0.43057459592819214,
                        0.07740428298711777,
                        -0.2336501032114029,
                        0.16730378568172455,
                        -0.186778724193573,
                        0.2991452217102051,
                        -0.1060066744685173,
                        -0.3984639346599579,
                        -0.1644545942544937,
                        -0.385908305644989,
                        -0.1035606786608696,
                        0.10978787392377853,
                        0.4266316294670105,
                        -0.03432100638747215,
                        0.16925765573978424,
                        -0.21825087070465088,
                        0.203566312789917,
                        -0.15195998549461365,
                        0.01676708087325096,
                        0.10030265152454376,
                        0.23492500185966492,
                        0.03257057070732117,
                        0.0346301794052124
                    ],
                    [
                        -0.4044826328754425,
                        0.3594095706939697,
                        0.03930209204554558,
                        -0.21081629395484924,
                        -0.28126582503318787,
                        0.30904337763786316,
                        0.36913836002349854,
                        -0.3368922472000122,
                        -0.09663387387990952,
                        -0.2517465054988861,
                        0.05109354853630066,
                        -0.14928483963012695,
                        -0.18464554846286774,
                        -0.3005169630050659,
                        -0.036832649260759354,
                        -0.0013691852800548077,
                        -0.2959388792514801,
                        0.1914428174495697,
                        0.30615928769111633,
                        0.39630210399627686,
                        0.4255184531211853,
                        -0.295098215341568,
                        0.008672553114593029,
                        -0.13962697982788086
                    ],
                    [
                        0.011332441121339798,
                        0.07233930379152298,
                        -0.19050274789333344,
                        0.18409785628318787,
                        0.4288771152496338,
                        -0.34989258646965027,
                        -0.13211415708065033,
                        -0.06762748211622238,
                        0.08713788539171219,
                        0.41129109263420105,
                        -0.06440155953168869,
                        -0.14312578737735748,
                        0.24057751893997192,
                        0.28605347871780396,
                        0.0203817430883646,
                        0.21133947372436523,
                        0.4534043073654175,
                        -0.46130895614624023,
                        -0.22776833176612854,
                        0.11331655085086823,
                        0.05962153524160385,
                        0.04978666827082634,
                        -0.3323722183704376,
                        0.04799690470099449
                    ]
                ],
                [
                    [
                        -0.42977428436279297,
                        0.08419883251190186,
                        0.06374605745077133,
                        0.16731375455856323,
                        0.03378686681389809,
                        0.006885650102049112,
                        0.2990107238292694,
                        0.06856037676334381,
                        -0.11487370729446411,
                        0.280755877494812,
                        -0.25837308168411255,
                        0.23498964309692383,
                        0.17562972009181976,
                        -0.2161049097776413,
                        -0.016558442264795303,
                        0.18763282895088196,
                        -0.14364196360111237,
                        -0.044861532747745514,
                        -0.43175655603408813,
                        0.2748585045337677,
                        -0.0684647187590599,
                        -0.24428348243236542,
                        0.018675686791539192,
                        -0.053195737302303314
                    ],
                    [
                        0.38654637336730957,
                        -0.46949633955955505,
                        0.19480571150779724,
                        -0.22661066055297852,
                        0.022108949720859528,
                        0.37558430433273315,
                        0.07885141670703888,
                        0.06553105264902115,
                        -0.2884356677532196,
                        -0.2027450054883957,
                        -0.1357785165309906,
                        0.07533340901136398,
                        -0.07443471997976303,
                        0.02946733869612217,
                        0.1215582862496376,
                        0.2572667896747589,
                        -0.09334226697683334,
                        -0.14771315455436707,
                        -0.10738106071949005,
                        0.1503361463546753,
                        -0.2049979418516159,
                        -0.12736056745052338,
                        -0.0402587354183197,
                        0.18391945958137512
                    ],
                    [
                        0.1901245266199112,
                        0.18348006904125214,
                        -0.2791009545326233,
                        -0.216211199760437,
                        0.08905243128538132,
                        0.12716864049434662,
                        0.07815288752317429,
                        0.38135263323783875,
                        -0.022588983178138733,
                        -0.216289222240448,
                        -0.2694733142852783,
                        -0.1604129672050476,
                        0.4149221181869507,
                        -0.10240297019481659,
                        -0.2857607305049896,
                        -0.08152276277542114,
                        -0.25037050247192383,
                        0.020785517990589142,
                        0.17884382605552673,
                        0.12838855385780334,
                        0.07866539061069489,
                        -0.013635806739330292,
                        0.15383172035217285,
                        -0.2709449231624603
                    ],
                    [
                        -0.07204683870077133,
                        0.16460196673870087,
                        0.29956239461898804,
                        0.012689304538071156,
                        0.25420254468917847,
                        0.11253279447555542,
                        0.28384000062942505,
                        -0.1130790114402771,
                        0.09046154469251633,
                        -0.06593300402164459,
                        -0.0032699110452085733,
                        -0.23499049246311188,
                        0.3792707622051239,
                        0.3477952480316162,
                        0.15404866635799408,
                        -0.01712798699736595,
                        0.08875598013401031,
                        0.2935941517353058,
                        0.15902118384838104,
                        0.1152280792593956,
                        0.07870592921972275,
                        -0.12315259873867035,
                        0.04214389994740486,
                        0.4528026282787323
                    ],
                    [
                        -0.1694200336933136,
                        0.09215898811817169,
                        0.3149540424346924,
                        0.20790179073810577,
                        0.05873619392514229,
                        -0.03275059908628464,
                        -0.11581780761480331,
                        -0.04601950943470001,
                        0.062469810247421265,
                        -0.522028923034668,
                        -0.2826080918312073,
                        -0.19866113364696503,
                        -0.2641272246837616,
                        0.13489605486392975,
                        -0.23687908053398132,
                        0.21038688719272614,
                        0.1555154025554657,
                        -0.2133798450231552,
                        -0.13735008239746094,
                        0.12741388380527496,
                        0.2702106535434723,
                        0.047796573489904404,
                        0.13176284730434418,
                        -0.13704225420951843
                    ],
                    [
                        0.0941348522901535,
                        -0.18425877392292023,
                        -0.05866873636841774,
                        0.11734721064567566,
                        -0.11208026856184006,
                        -0.23379212617874146,
                        -0.01019557099789381,
                        -0.11215545237064362,
                        0.050006113946437836,
                        -0.23066465556621552,
                        0.25379660725593567,
                        0.4550130367279053,
                        0.14586368203163147,
                        0.06832705438137054,
                        -0.006078552454710007,
                        0.16063304245471954,
                        0.0705057680606842,
                        0.2868461310863495,
                        0.10079261660575867,
                        0.31102946400642395,
                        -0.021333685144782066,
                        -0.01797351986169815,
                        0.5227980017662048,
                        -0.12089815735816956
                    ],
                    [
                        -0.07486288994550705,
                        0.1645035296678543,
                        0.21999135613441467,
                        -0.35874155163764954,
                        -0.03769299387931824,
                        0.107914499938488,
                        0.1094987690448761,
                        0.04017183184623718,
                        -0.35731300711631775,
                        0.3985489010810852,
                        0.13358654081821442,
                        -0.12354449182748795,
                        -0.2084396332502365,
                        0.273058146238327,
                        0.014371375553309917,
                        0.12767717242240906,
                        0.02707182988524437,
                        0.10885801911354065,
                        0.054056234657764435,
                        0.16193312406539917,
                        0.1037321388721466,
                        0.2910608947277069,
                        0.2330317199230194,
                        -0.36782509088516235
                    ],
                    [
                        -0.3847946226596832,
                        0.09942357242107391,
                        -0.05801631137728691,
                        -0.35298851132392883,
                        0.2693825960159302,
                        -0.16900117695331573,
                        -0.2536580264568329,
                        0.05419938266277313,
                        -0.2830909192562103,
                        -0.3090105950832367,
                        0.14303730428218842,
                        -0.1004890576004982,
                        -0.1417081356048584,
                        -0.37745803594589233,
                        0.09470610320568085,
                        0.06050008162856102,
                        -0.09541715681552887,
                        0.1922624707221985,
                        0.016992000862956047,
                        0.04534639045596123,
                        -0.1801665723323822,
                        0.049410078674554825,
                        0.08172284066677094,
                        0.28731033205986023
                    ]
                ],
                [
                    [
                        -0.08687528967857361,
                        0.0371265783905983,
                        0.006785016041249037,
                        -0.021517310291528702,
                        0.01383771002292633,
                        0.07561088353395462,
                        -0.08652547001838684,
                        -0.022981582209467888,
                        -0.028719840571284294,
                        0.018575724214315414,
                        0.03558732941746712,
                        0.03304802626371384,
                        -0.02004333958029747,
                        -0.04603169858455658,
                        -0.02423574961721897,
                        0.00559504609555006,
                        -0.034597013145685196,
                        0.04860382154583931,
                        -0.0266541987657547,
                        0.04611119255423546,
                        0.007938736118376255,
                        -0.0766843855381012,
                        -0.036599479615688324,
                        0.08597365021705627
                    ],
                    [
                        0.026231929659843445,
                        -0.035501573234796524,
                        0.007568167522549629,
                        -0.026117954403162003,
                        -0.027928872033953667,
                        -0.004497225861996412,
                        -0.04411262646317482,
                        -0.021399179473519325,
                        0.05228961259126663,
                        0.03992273658514023,
                        -0.05458400025963783,
                        0.008034015074372292,
                        0.12108910083770752,
                        0.019394297152757645,
                        -0.018619759008288383,
                        -0.01603931374847889,
                        0.08492372184991837,
                        -0.0433434396982193,
                        -0.04478590562939644,
                        0.0357484370470047,
                        0.012075780890882015,
                        0.015385381877422333,
                        -0.03694550693035126,
                        0.027625057846307755
                    ]
                ]
            ]
        },
        {
            "type": "dense",
            "activation": "",
            "shape": [
                null,
                null,
                1
            ],
            "weights": [
                [
                    [
                        -0.31355518102645874
                    ],
                    [
                        -0.520957350730896
                    ],
                    [
                        -0.05561792105436325
                    ],
                    [
                        0.42658731341362
                    ],
                    [
                        0.47379228472709656
                    ],
                    [
                        0.42975690960884094
                    ],
                    [
                        -0.12274864315986633
                    ],
                    [
                        -0.12334175407886505
                    ]
                ],
                [
                    0.0030689463019371033
                ]
            ]
        }
    ]
}