{
    "in_shape": [
        null,
        null,
        1
    ],
    "layers": [
        {
            "type": "dense",
            "activation": "tanh",
            "shape": [
                null,
                null,
                8
            ],
            "weights": [
                [
                    [
                        -0.006669923197478056,
                        -0.06440379470586777,
                        0.02581149898469448,
                        -0.0019495411543175578,
                        -0.02825024724006653,
                        0.05243578180670738,
                        0.024600977078080177,
                        0.12034700065851212
                    ]
                ],
                [
                    0.013894843868911266,
                    -0.013101424090564251,
                    -0.15981346368789673,
                    -0.06595512479543686,
                    0.05955301597714424,
                    -0.030561838299036026,
                    -0.01228579692542553,
                    0.004487141035497189
                ]
            ]
        },
        {
            "type": "conv1d",
            "activation": "tanh",
            "shape": [
                null,
                null,
                4
            ],
            "kernel_size": [
                3
            ],
            "dilation": [
                2
            ],
            "weights": [
                [
                    [
                        [
                            -0.24849024415016174,
                            -0.1279517412185669,
                            -0.35234034061431885,
                            0.1911085844039917
                        ],
                        [
                            -0.0620521605014801,
                            0.20761609077453613,
                            0.2620178461074829,
                            0.3683318495750427
                        ],
                        [
                            0.055269837379455566,
                            -0.1766577661037445,
                            -0.15787580609321594,
                            -0.22403819859027863
                        ],
                        [
                            -0.3108888268470764,
                            0.19552350044250488,
                            -0.08504751324653625,
                            0.3951264023780823
                        ],
                        [
                            -0.2825371026992798,
                            0.32923054695129395,
                            -0.22269625961780548,
                            -0.367911159992218
                        ],
                        [
                            -0.22193169593811035,
                            0.018841713666915894,
                            -0.138047993183136,
                            -0.14809677004814148
                        ],
                        [
                            -0.4046349823474884,
                            0.12305498123168945,
                            -0.21431384980678558,
                            -0.19219207763671875
                        ],
                        [
                            -0.16435669362545013,
                            -0.04765179753303528,
                            -0.31594863533973694,
                            0.12089121341705322
                        ]
                    ],
                    [
                        [
                            -0.07905486226081848,
                            -0.01018589735031128,
                            -0.3057325482368469,
                            0.2080364227294922
                        ],
                        [
                            -0.29742684960365295,
                            -0.3955109715461731,
                            -0.1978066861629486,
                            -0.1871994286775589
                        ],
                        [
                            0.2954167127609253,
                            0.11951571702957153,
                            -0.07045033574104309,
                            -0.3323664367198944
                        ],
                        [
                            0.16880065202713013,
                            -0.10611602663993835,
                            -0.15800389647483826,
                            0.11420732736587524
                        ],
                        [
                            -0.3496021628379822,
                            0.18199461698532104,
                            -0.21142497658729553,
                            -0.06640738248825073
                        ],
                        [
                            0.2838308811187744,
                            -0.07244664430618286,
                            0.1345924735069275,
                            0.2109559178352356
                        ],
                        [
                            0.2507893443107605,
                            0.3683171272277832,
                            -0.056231290102005005,
                            0.28376907110214233
                        ],
                        [
                            -0.304472953081131,
                            0.3317177891731262,
                            -0.38727739453315735,
                            0.35054337978363037
                        ]
                    ],
                    [
                        [
                            0.009049028158187866,
                            0.24867457151412964,
                            -0.07390609383583069,
                            0.24858921766281128
                        ],
                        [
                            0.17636632919311523,
                            0.14423424005508423,
                            0.11061209440231323,
                            -0.3402538001537323
                        ],
                        [
                            0.060982465744018555,
                            -0.004599124193191528,
                            0.25920331478118896,
                            -0.3187903165817261
                        ],
                        [
                            -0.21315479278564453,
                            0.21390241384506226,
                            -0.06336656212806702,
                            0.34113776683807373
                        ],
                        [
                            -0.2696656584739685,
                            0.24212974309921265,
                            -0.2954832911491394,
                            0.05638188123703003
                        ],
                        [
                            0.20213979482650757,
                            0.26860159635543823,
                            0.39723485708236694,
                            -0.1733601838350296
                        ],
                        [
                            -0.20479808747768402,
                            -0.2809198796749115,
                            0.30918633937835693,
                            -0.05914878845214844
                        ],
                        [
                            -0.23284079134464264,
                            0.2738109827041626,
                            0.24247831106185913,
                            0.030942678451538086
                        ]
                    ]
                ],
                [
                    -0.024906782433390617,
                    0.03512134402990341,
                    0.06247962638735771,
                    0.011050387285649776
                ]
            ]
        },
        {
            "type": "gru",
            "activation": "tanh",
            "shape": [
                null,
                null,
                8
            ],
            "weights": [
                [
                    [
                        -0.03719809651374817,
                        0.4378437399864197,
                        0.21633249521255493,
                        0.18742966651916504,
                        -0.33109045028686523,
                        -0.4554098844528198,
                        0.4120916724205017,
                        -0.4584429860115051,
                        0.4436678886413574,
                        0.4195979833602905,
                        -0.06446641683578491,
                        -0.41118067502975464,
                        0.27394407987594604,
                        0.3825901746749878,
                        0.04114711284637451,
                        0.18144452571868896,
                        -0.3566335439682007,
                        0.3483092784881592,
                        0.45403021574020386,
                        0.12400609254837036,
                        -0.3259745240211487,
                        -0.4291338622570038,
                        -0.23560458421707153,
                        0.2400919795036316
                    ],
                    [
                        -0.1220213770866394,
                        -0.0326882004737854,
                        0.05971139669418335,
                        -0.1394353210926056,
                        0.2965545058250427,
                        -0.29185378551483154,
                        0.14231210947036743,
                        -0.11212119460105896,
                        -0.24510833621025085,
                        0.1298491358757019,
                        0.09239697456359863,
                        -0.028060197830200195,
                        0.1772741675376892,
                        -0.08967068791389465,
                        -0.3945300579071045,
                        -0.2882290482521057,
                        0.016714423894882202,
                        0.16512984037399292,
                        -0.17055001854896545,
                        0.16024398803710938,
                        -0.4013541042804718,
                        0.31158125400543213,
                        -0.14408448338508606,
                        -0.453767865896225
                    ],
                    [
                        -0.3256879150867462,
                        0.26249802112579346,
                        0.36175334453582764,
                        0.15609854459762573,
                        0.17570865154266357,
                        0.23838627338409424,
                        0.44695591926574707,
                        -0.3384142518043518,
                        0.15155476331710815,
                        -0.0377543568611145,
                        0.05601346492767334,
                        0.2811671495437622,
                        0.37771064043045044,
                        0.1805073618888855,
                        0.3650484085083008,
                        0.2539524435997009,
                        0.4181155562400818,
                        0.2137354016304016,
                        -0.3320739269256592,
                        -0.12373635172843933,
                        0.449751615524292,
                        -0.21021336317062378,
                        0.22322523593902588,
                        -0.18774685263633728
                    ],
                    [
                        0.3472942113876343,
                        0.07843780517578125,
                        -0.2077387273311615,
                        -0.3427784740924835,
                        -0.37472105026245117,
                        0.3039599657058716,
                        0.21883618831634521,
                        -0.05670568346977234,
                        0.42776232957839966,
                        0.4152677655220032,
                        -0.14273470640182495,
                        0.19344353675842285,
                        -0.18592458963394165,
                        0.006900101900100708,
                        -0.1162852942943573,
                        -0.3124203383922577,
                        -0.23473423719406128,
                        0.3881198763847351,
                        0.09678226709365845,
                        0.2735658884048462,
                        -0.2877315878868103,
                        -0.34911859035491943,
                        -0.3407951891422272,
                        0.40781474113464355
                    ]
                ],
                [
                    [
                        -0.11639797687530518,
                        -0.08889461308717728,
                        0.203586608171463,
                        0.04087594151496887,
                        0.25099846720695496,
                        -0.0051520997658371925,
                        -0.13099165260791779,
                        0.3603823482990265,
                        0.3729691803455353,
                        0.46277865767478943,
                        -0.06514742225408554,
                        -0.1587071716785431,
                        0.1797066032886505,
                        -0.29420822858810425,
                        0.11045083403587341,
                        0.06554404646158218,
                        0.1601427048444748,
                        0.05294165387749672,
                        -0.07258519530296326,
                        -0.3098680078983307,
                        0.10828620940446854,
                        -0.1391763836145401,
                        0.18904727697372437,
                        -0.10367771238088608
                    ],
                    [
                        -0.0659775361418724,
                        0.21749760210514069,
                        -0.17853623628616333,
                        0.5745581388473511,
                        0.16683705151081085,
                        0.23074586689472198,
                        -0.000808018259704113,
                        -0.30995479226112366,
                        -0.05017545819282532,
                        0.014036465436220169,
                        -0.4055338203907013,
                        -0.19971604645252228,
                        -0.04044565185904503,
                        0.13176780939102173,
                        -0.1309911608695984,
                        0.11828449368476868,
                        0.2562570571899414,
                        0.21343855559825897,
                        0.05171698331832886,
                        -0.09691281616687775,
                        0.164895698428154,
                        0.009549461305141449,
                        0.03767089545726776,
                        -0.00016263872385025024
                    ],
                    [
                        0.15120050311088562,
                        -0.18232181668281555,
                        -0.18672654032707214,
                        0.024857234209775925,
                        0.07483307272195816,
                        -0.11145022511482239,
                        -0.057604365050792694,
                        -0.11915617436170578,
                        0.23276866972446442,
                        -0.4108003079891205,
                        0.037505391985177994,
                        0.1402890533208847,
                        -0.073939248919487,
                        -0.167408287525177,
                        0.22791235148906708,
                        -0.16696758568286896,
                        -0.08776625245809555,
                        0.29679614305496216,
                        0.44345876574516296,
                        -0.2073827087879181,
                        0.13725273311138153,
                        -0.37358036637306213,
                        0.1232144832611084,
                        -0.08060865849256516
                    ],
                    [
                        0.0836315006017685,
                        0.04590808227658272,
                        -0.3154594600200653,
                        -0.04583631828427315,
                        0.18137891590595245,
                        -0.24814043939113617,
                        0.3083049952983856,
                        0.3144875764846802,
                        0.07750563323497772,
                        -0.14405515789985657,
                        0.18687991797924042,
                        -0.11468453705310822,
                        -0.1568066030740738,
                        0.05211584270000458,
                        -0.2752789258956909,
                        0.0939980074763298,
                        0.5154232382774353,
                        -0.0768171027302742,
                        0.04083779454231262,
                        -0.12764933705329895,
                        -0.18093493580818176,
                        -0.1086382120847702,
                        -0.2819902300834656,
                        -0.022794213145971298
                    ],
                    [
                        -0.2812255620956421,
                        0.4050203561782837,
                        -0.0400744266808033,
                        0.041047222912311554,
                        0.052827052772045135,
                        0.26185765862464905,
                        0.021278459578752518,
                        -0.020292922854423523,
                        -0.10911040753126144,
                        -0.08505860716104507,
                        0.40400317311286926,
                        0.028234392404556274,
                        0.4425504207611084,
                        -0.15090817213058472,
                        -0.14744548499584198,
                        -0.3060191869735718,
                        0.09319091588258743,
                        0.06316975504159927,
                        -0.003764302469789982,
                        0.12378675490617752,
                        -0.12771640717983246,
                        -0.3041906952857971,
                        0.15321269631385803,
                        0.06210741400718689
                    ],
                    [
                        0.19318217039108276,
                        0.14422500133514404,
                        -0.21865786612033844,
                        -0.21077990531921387,
                        -0.22084026038646698,
                        0.26130494475364685,
                        0.15876388549804688,
                        -0.24217121303081512,
                        0.01935645192861557,
                        -0.08498594164848328,
                        0.04575689509510994,
                        -0.16686108708381653,
                        -0.06690184026956558,
                        -0.5178966522216797,
                        -0.041211433708667755,
                        0.25216585397720337,
                        -0.03740924224257469,
                        -0.2820676863193512,
                        -0.1430186629295349,
                        -0.33568501472473145,
                        0.1347929984331131,
                        0.048492878675460815,
                        0.12621888518333435,
                        0.150572270154953
                    ],
                    [
                        -0.3587031662464142,
                        0.11250459402799606,
                        0.09155429154634476,
                        0.030493680387735367,
                        0.1411391943693161,
                        0.2370123416185379,
                        -0.14440131187438965,
                        0.01339595764875412,
                        -0.0508546307682991,
                        -0.1370539665222168,
                        0.22217285633087158,
                        0.07569876313209534,
                        -0.14250628650188446,
                        -0.07975786924362183,
                        0.1433013379573822,
                        0.515643835067749,
                        -0.2024035006761551,
                        0.08603177219629288,
                        0.08001768589019775,
                        -0.12298448383808136,
                        -0.14748965203762054,
                        -0.005922477692365646,
                        -0.3883695602416992,
                        -0.3466503620147705
                    ],
                    [
                        0.1915578693151474,
                        0.06775461137294769,
                        -0.22694459557533264,
                        -0.31836819648742676,
                        0.10818900167942047,
                        0.06484200060367584,
                        -0.10971862077713013,
                        -0.14412321150302887,
                        -0.04926295578479767,
                        0.06935776025056839,
                        0.0898667573928833,
                        0.26481950283050537,
                        -0.00252746045589447,
                        0.21654623746871948,
                        0.23327741026878357,
                        0.241985023021698,
                        0.31129899621009827,
                        0.30620312690734863,
                        -0.33478114008903503,
                        0.057707108557224274,
                        -0.09184889495372772,
                        0.02266903780400753,
                        0.381970077753067,
                        -0.22558820247650146
                    ]
                ],
                [
                    [
                        -0.0711318776011467,
                        0.02901623584330082,
                        -0.014930126257240772,
                        -0.013241210952401161,
                        -0.11334474384784698,
                        -0.09377025812864304,
                        0.07757068425416946,
                        -0.08229365199804306,
                        -0.04643974080681801,
                        -0.0935792550444603,
                        -0.047168437391519547,
                        0.0379229299724102,
                        0.02542838454246521,
                        0.0333094447851181,
                        0.027515558525919914,
                        -0.029220765456557274,
                        0.017635302618145943,
                        -0.072388656437397,
                        0.004703504033386707,
                        0.04118119180202484,
                        -0.007906346581876278,
                        0.022691208869218826,
                        0.0062987119890749454,
                        0.024634508416056633
                    ],
                    [
                        0.025624219328165054,
                        0.08132370561361313,
                        0.06463056057691574,
                        0.005470610689371824,
                        0.07235332578420639,
                        -0.007303568068891764,
                        -0.029784321784973145,
                        0.0688449814915657,
                        -0.003035056171938777,
                        -0.03487477824091911,
                        0.06365072727203369,
                        -0.09642064571380615,
                        -0.01702880673110485,
                        -0.048773761838674545,
                        0.09602316468954086,
                        0.030422378331422806,
                        -0.01498020626604557,
                        -0.073652483522892,
                        -0.016341928392648697,
                        -0.030124297365546227,
                        0.00019666706793941557,
                        0.012195521034300327,
                        0.14046086370944977,
                        -0.02191689796745777
                    ]
                ]
            ]
        },
        {
            "type": "dense",
            "activation": "",
            "shape": [
                null,
                null,
                1
            ],
            "weights": [
                [
                    [
                        -0.4806375503540039
                    ],
                    [
                        -0.41302967071533203
                    ],
                    [
                        -0.31941384077072144
                    ],
                    [
                        -0.11109311878681183
                    ],
                    [
                        0.5840950012207031
                    ],
                    [
                        0.3352797031402588
                    ],
                    [
                        -0.009263014420866966
                    ],
                    [
                        0.17424646019935608
                    ]
                ],
                [
                    0.07902999967336655
                ]
            ]
        }
    ]
}